{
  "version": 1,
  "source_tick": 8,
  "description": "Founders discovered by the direct foraging challenge after 8 iterations",
  "entries": [
    {
      "label": "forager-0001-02926",
      "source": "foraging_search",
      "genome": {
        "weights_l1": [
          -0.26550657,
          -0.23713419,
          0.21649092,
          0.3266517,
          0.03750357,
          0.10206103,
          0.10708511,
          -0.33242553,
          -0.28624716,
          -0.0008607209,
          -0.36720207,
          -0.3716801,
          0.25258267,
          0.101402044,
          -0.111815125,
          -0.35504508,
          0.398004,
          0.047727317,
          -0.1178582,
          0.18773109,
          -0.38828278,
          -0.28513882,
          0.1363799,
          -0.05010745,
          0.33744425,
          -0.22403704,
          0.3235662,
          0.40320438,
          0.1547265,
          -0.18433401,
          0.22634763,
          -0.028722078,
          -0.20535591,
          0.33658785,
          0.13807857,
          -0.3821656,
          0.39188045,
          0.18736994,
          0.34435254,
          -0.27970672,
          -0.3900013,
          -0.17102398,
          -0.022158653,
          0.07919678,
          -0.1823229,
          0.24125636,
          -0.1852802,
          0.30976492,
          -0.25848967,
          0.19012743,
          0.18368071,
          -0.015111297,
          -0.03444785,
          -0.06342721,
          0.08171305,
          -0.27541673,
          0.25032967,
          0.3772382,
          -0.39390683,
          -0.22591625,
          -0.0031598508,
          0.22776443,
          -0.06259802,
          -0.14743918,
          -0.08787048,
          0.061413854,
          0.07669246,
          0.0844779,
          0.18154687,
          -0.13701832,
          0.36928278,
          -0.08621484,
          0.29217178,
          0.3630104,
          -0.2326947,
          0.014782876,
          -0.13262737,
          -0.28927153,
          0.22410154,
          -0.075284034,
          0.049183458,
          0.020072103,
          -0.12247613,
          0.17461777,
          0.02610293,
          -0.06978068,
          0.03243518,
          0.23653752,
          0.37745172,
          0.39058363,
          0.06804073,
          0.38814932,
          -0.15889032,
          0.12562096,
          -0.25554833,
          0.39973265,
          -0.35373983,
          -0.035365134,
          0.2840411,
          0.09072092,
          -0.05029121,
          0.18911874,
          -0.21833608,
          0.1552797,
          0.13307834,
          -0.22278717,
          0.18040991,
          0.40437675,
          -0.017154247,
          -0.19112208,
          0.30568653,
          0.28237486,
          0.20530844,
          0.020907253,
          0.20378095,
          -0.27259278,
          0.29596227,
          0.087584704,
          0.32905483,
          0.11057663,
          -0.21018796,
          -0.22592892,
          -0.23895094,
          0.38643664,
          0.27251703,
          -0.21983989,
          -0.3383263,
          -0.07861519,
          -0.387872,
          -0.102938,
          -0.21017317,
          0.24984038,
          -0.02867809,
          0.26875705,
          0.363757,
          -0.071601,
          0.069907516,
          -0.18903622,
          -0.13164422,
          -0.024033904,
          -0.06386724,
          0.37796885,
          -0.22415383,
          0.12247878,
          0.04846424,
          -0.39949593,
          0.048791766,
          -0.07293877,
          -0.03999287,
          -0.33388165,
          -0.21762769,
          -0.38740483,
          -0.12046307,
          0.14454824,
          -0.06561878,
          -0.32738683,
          -0.3575964,
          0.044020355,
          0.2050525,
          -0.15309983,
          -0.2794806,
          0.33420944,
          0.008442372,
          -0.2176089,
          -0.2416942,
          0.3643914,
          -0.070669055,
          0.21065176,
          0.20835322,
          0.38196075,
          -0.33462167,
          0.013018221,
          0.28938913,
          -0.37788022,
          0.16475248,
          -0.20547476,
          -0.3670948,
          0.019015849,
          -0.0092051625,
          -0.041227072,
          0.36444694,
          -0.30151352,
          -0.04039195,
          0.1453054,
          -0.19838105,
          0.3784058,
          -0.40410325,
          0.25342536,
          -0.1897817,
          -0.27130067,
          -0.024274498,
          -0.04288593,
          0.20110488,
          0.06290704,
          0.09846878,
          -0.39417684,
          -0.05006832,
          -0.24885905,
          0.13485003,
          -0.114349425,
          0.26867342,
          0.25937873,
          -0.0046426356,
          -0.14512321,
          0.20684522,
          0.017697453,
          -0.35886407,
          -0.3298418,
          -0.10106295,
          0.3633144,
          0.3116961,
          -0.29264358,
          0.17729938,
          0.27326477,
          -0.34182808,
          0.39509302,
          -0.15908149,
          0.1900658,
          0.05549866,
          0.37767047,
          0.20946664,
          -0.16777137,
          -0.061285168,
          -0.39344487,
          0.36628723,
          0.20485193,
          0.29249573,
          -0.11899409,
          -0.18778178,
          0.38912344,
          -0.2072549,
          0.380731,
          -0.21540545,
          -0.16130333,
          0.2868389,
          0.22664714,
          -0.10609648,
          0.24685395,
          -0.1529775,
          0.07105428,
          -0.14782977,
          0.08650723,
          -0.07636407,
          -0.4016112,
          0.08214775,
          0.20868671,
          0.19373256,
          -0.19632117,
          -0.1289896,
          -0.19210963,
          0.057574302,
          0.14867198,
          0.013490498,
          -0.035405815,
          -0.3598562,
          -0.17460334,
          -0.25928205,
          -0.2746685,
          0.22115272,
          0.21143377,
          -0.20388374,
          0.30943096,
          -0.1638015,
          -0.3121599,
          -0.09245211,
          -0.33701617,
          -0.17471994,
          0.17091078,
          0.024616748,
          0.09787184,
          -0.0448038,
          -0.13496456,
          -0.34185272,
          0.19919115,
          -0.029492885,
          0.32100505,
          -0.22291136,
          0.16114193,
          -0.03778729,
          -0.2444248,
          -0.08280602,
          -0.03752187,
          -0.29750666,
          -0.11086565,
          -0.21018787,
          0.0145273805,
          0.029312044,
          0.0111326575,
          0.27146584,
          -0.20807417,
          -0.12954754,
          -0.09364745,
          -0.17562106,
          0.18071944,
          -0.3655547,
          -0.010429144,
          0.19922638,
          0.3976977,
          0.19762635,
          0.34507298,
          -0.39969206,
          -0.24298981,
          0.09912723,
          -0.20623426,
          -0.40030536,
          -0.3261834,
          -0.100631475,
          -0.14490342,
          -0.3773625,
          0.26655263,
          0.29166758,
          0.3745939,
          0.33105195,
          0.21338409,
          -0.043040216,
          0.16120797,
          0.2110998,
          -0.16317974,
          0.13408816,
          0.21419746
        ],
        "biases_l1": [
          0.0,
          0.0,
          0.0,
          0.0,
          0.0,
          0.0,
          0.0,
          0.0,
          0.0,
          0.0,
          0.0,
          0.0,
          0.0,
          0.0,
          0.0,
          0.0
        ],
        "weights_l2": [
          -0.430035,
          0.45694512,
          0.10606599,
          0.03444755,
          0.50257,
          0.18114954,
          0.44371456,
          0.42484546,
          0.34600478,
          0.406408,
          -0.29250646,
          -0.19140518,
          -0.3426616,
          0.10795766,
          -0.23064363,
          0.31908762,
          -0.30132723,
          0.1217494,
          -0.5136562,
          -0.50924844,
          0.0729543,
          -0.041071504,
          0.2907791,
          0.24147266,
          -0.27116904,
          -0.39025804,
          -0.4319247,
          -0.45152706,
          0.0070599914,
          0.31463116,
          0.3242606,
          0.4406485,
          -0.25670135,
          0.2817691,
          0.29963815,
          -0.52200073,
          -0.45854184,
          0.007044673,
          -0.06944087,
          0.025881052,
          0.35366964,
          0.20360196,
          0.48612362,
          0.45164657,
          -0.02427411,
          -0.32968578,
          0.33619165,
          0.10026419,
          0.455572,
          -0.39418757,
          -0.016582847,
          0.26756907,
          0.16444266,
          0.05718237,
          0.17564332,
          -0.5140094,
          -0.3302579,
          0.3782174,
          0.4044904,
          -0.0052351356,
          0.4379815,
          0.19459015,
          -0.34359604,
          0.092908025,
          -0.30020466,
          0.086652994,
          0.14896965,
          0.10565758,
          0.3929432,
          0.41738307,
          -0.25971052,
          0.51209134,
          0.09832734,
          -0.29966342,
          -0.5155217,
          -0.077590436,
          0.17672992,
          -0.36585993,
          -0.39858902,
          -0.09978333,
          0.39790058,
          0.11322236,
          0.04458368,
          0.3352043,
          0.100975394,
          -0.44916847,
          0.11066389,
          -0.31674668,
          -0.014764905,
          0.11440641,
          0.027873456,
          -0.46488637,
          0.45643324,
          0.12880874,
          0.41583204,
          0.08761835
        ],
        "biases_l2": [
          0.0,
          0.0,
          0.0,
          0.0,
          0.0,
          0.0
        ],
        "alive": true,
        "morph_size": 1.2725339,
        "morph_speed_mult": 1.4574373,
        "morph_vision_mult": 1.4265344,
        "morph_metabolism": 0.96510243
      },
      "generation": 0,
      "offspring_count": 0,
      "age": 4,
      "energy": 70.0,
      "species_id": 0,
      "score": 64948.332,
      "evaluations": 6,
      "successes": 6,
      "best_steps_to_food": 4,
      "average_steps_to_food": 25.166666,
      "notes": "Direct foraging challenge: 6 / 6 scenarios reached food"
    },
    {
      "label": "forager-0003-05353",
      "source": "foraging_search",
      "genome": {
        "weights_l1": [
          -0.29945275,
          0.28163207,
          0.19536704,
          0.14612246,
          -0.27411458,
          0.3222437,
          0.25671494,
          0.389019,
          0.09392542,
          -0.050431073,
          0.2102958,
          0.31637555,
          -0.3559013,
          0.18536544,
          0.3251539,
          -0.20627163,
          0.39658874,
          -0.0075033903,
          0.23054379,
          0.30571145,
          0.39251935,
          -0.292482,
          -0.15976176,
          -0.1953387,
          -0.21801634,
          -0.06652242,
          0.0818021,
          -0.24829441,
          -0.31370002,
          -0.08383766,
          -0.06459084,
          0.17813754,
          -0.33217052,
          0.38203782,
          0.27820778,
          0.13730651,
          -0.030960768,
          0.39606285,
          0.097972095,
          0.0072180033,
          0.20088226,
          0.0924747,
          -0.34371558,
          0.24199629,
          -0.053576797,
          -0.2551322,
          -0.2694118,
          0.2560708,
          0.028189868,
          0.2985813,
          -0.111287385,
          -0.38884273,
          -0.28653127,
          -0.16066083,
          0.022571743,
          -0.24282804,
          -0.13260236,
          -0.36363763,
          0.38941234,
          0.12867802,
          0.21054661,
          -0.23854086,
          0.1987297,
          -0.3273878,
          -0.26480147,
          0.048336834,
          -0.22218165,
          0.20700425,
          0.16038656,
          -0.38418013,
          -0.25946474,
          -0.22993042,
          0.3413937,
          -0.21115372,
          -0.38288668,
          0.33257008,
          0.20197266,
          0.12506735,
          -0.19161926,
          0.38486838,
          -0.028592438,
          -0.28599498,
          -0.03483972,
          0.01152122,
          0.17024183,
          0.0147641,
          0.044732273,
          -0.38541588,
          0.3305241,
          -0.23623161,
          -0.3439081,
          -0.17612419,
          0.22651458,
          0.12562722,
          0.346237,
          -0.22155754,
          0.060379386,
          -0.22504902,
          0.12504935,
          0.050435245,
          -0.31822577,
          -0.12955397,
          0.38717502,
          -0.13281924,
          -0.19744666,
          0.27605873,
          -0.376844,
          0.1289069,
          0.39427823,
          -0.20552225,
          0.23246682,
          0.39519823,
          0.28528172,
          0.39575332,
          -0.36513266,
          -0.26985827,
          -0.26870173,
          0.37873167,
          -0.0764609,
          0.3960656,
          0.39681017,
          0.03816563,
          -0.16343796,
          -0.2873525,
          0.35998088,
          0.21462262,
          0.17820936,
          0.123502135,
          0.088008404,
          0.32382113,
          0.29368234,
          -0.08648592,
          0.21080565,
          0.36122382,
          0.2615996,
          0.0827848,
          0.021444231,
          0.27665955,
          0.06640971,
          -0.33447966,
          -0.27569586,
          -0.07322729,
          0.3744483,
          -0.018945098,
          0.40776515,
          0.37664765,
          0.1741479,
          -0.16367127,
          0.27566904,
          0.18463135,
          0.053025514,
          0.19276714,
          -0.25443357,
          -0.09241006,
          -0.08500022,
          0.19537812,
          0.11655909,
          0.2980023,
          -0.20442677,
          -0.09648046,
          -0.2081933,
          0.06304595,
          0.07342845,
          -0.39663392,
          0.008947432,
          0.1371637,
          0.23969728,
          0.13781983,
          0.1492886,
          0.23826104,
          -0.27188262,
          -0.0351142,
          0.26803774,
          -0.29807207,
          0.38052893,
          -0.02661696,
          -0.18805723,
          0.26580948,
          0.03999853,
          -0.25481316,
          0.14011657,
          -0.18080527,
          0.005591154,
          -0.27491206,
          -0.34550282,
          -0.3165962,
          -0.14931333,
          0.24365628,
          -0.035597473,
          0.22225863,
          0.005293995,
          0.37009716,
          -0.13774782,
          0.1324336,
          0.31097275,
          0.28291202,
          -0.20695686,
          -0.0014573932,
          -0.041630924,
          -0.25226825,
          -0.15646261,
          -0.00056785345,
          0.32278782,
          -0.19356702,
          -0.15505683,
          -0.16099635,
          -0.30083618,
          -0.18996722,
          0.27062762,
          0.28972656,
          0.10874593,
          0.3910423,
          -0.09859094,
          0.0623177,
          -0.1628086,
          -0.121291965,
          -0.06159967,
          0.07471073,
          0.11248964,
          0.34365505,
          -0.022941709,
          -0.30800676,
          -0.22230448,
          -0.33861607,
          -0.3585274,
          -0.33852974,
          0.111429214,
          -0.28209382,
          0.40043247,
          -0.11914322,
          0.13407981,
          -0.3918631,
          0.052893132,
          -0.37631917,
          0.20528585,
          -0.26062068,
          -0.17313164,
          -0.065081,
          -0.016916364,
          -0.16528001,
          -0.39277902,
          0.027490914,
          -0.32059205,
          0.1417309,
          -0.3230029,
          0.33047318,
          -0.21546677,
          -0.20540273,
          -0.26662815,
          0.34593278,
          -0.07667434,
          -0.33584332,
          0.08201614,
          -0.2689841,
          0.091789424,
          -0.1730491,
          0.13393945,
          -0.32679552,
          -0.35905638,
          -0.07382333,
          0.3643605,
          -0.36293438,
          0.3344192,
          0.37812734,
          0.26414818,
          0.13562351,
          0.20801198,
          0.2328909,
          0.051654667,
          0.07510981,
          0.013522327,
          -0.11393866,
          0.3690135,
          -0.043580234,
          -0.29020312,
          -0.04250136,
          0.022224367,
          -0.20284022,
          0.0820581,
          -0.36109126,
          -0.11938372,
          0.20461082,
          0.10746819,
          0.11342174,
          0.084267765,
          0.26395518,
          0.29139757,
          -0.13831529,
          0.16134691,
          -0.17179379,
          -0.2298833,
          0.27909148,
          0.29359323,
          -0.16539223,
          -0.042393714,
          -0.40760833,
          -0.046952546,
          -0.16333577,
          -0.40056708,
          0.19760102,
          -0.075795054,
          -0.1918812,
          0.055440664,
          0.023066401,
          0.3123896,
          0.3311131,
          -0.17820606,
          -0.3996104,
          0.36118156,
          0.29445255,
          -0.097179115,
          -0.019443244,
          -0.33185416,
          0.17162901,
          0.1340332,
          0.15209818,
          0.3776834,
          -0.0340119,
          0.21176422,
          0.18922555
        ],
        "biases_l1": [
          0.0,
          0.0,
          0.0,
          0.0,
          0.0,
          0.0,
          0.0,
          0.0,
          0.0,
          0.0,
          0.0,
          0.0,
          0.0,
          0.0,
          0.0,
          0.0
        ],
        "weights_l2": [
          0.3378535,
          0.5037412,
          0.48277432,
          0.44329023,
          0.11206466,
          0.493401,
          -0.31283158,
          -0.40064043,
          0.022104383,
          -0.2225348,
          0.33436286,
          -0.044124365,
          -0.28244603,
          -0.17763886,
          -0.16029933,
          0.364882,
          -0.3567794,
          0.43854737,
          -0.04854697,
          0.36201566,
          0.35877466,
          0.10138255,
          -0.29107332,
          0.26109135,
          0.32213807,
          0.25945872,
          -0.3354319,
          -0.054480493,
          -0.44691744,
          0.3749025,
          0.39943677,
          -0.30698198,
          -0.017285466,
          0.088899195,
          -0.32624507,
          -0.19018075,
          -0.28686976,
          0.49738842,
          0.40403533,
          0.4824503,
          0.19783449,
          0.37934786,
          -0.055742025,
          -0.48073277,
          0.4477921,
          0.1667574,
          -0.28510273,
          -0.041695535,
          0.03778732,
          -0.42411482,
          -0.10212302,
          0.27736145,
          0.10531604,
          0.27921075,
          0.09462726,
          0.17684919,
          -0.261497,
          -0.20636469,
          -0.06539714,
          -0.17703322,
          -0.47666502,
          0.041876733,
          0.14523286,
          0.472543,
          0.25482547,
          -0.48270598,
          0.24154401,
          -0.49875996,
          -0.07989049,
          0.32310927,
          0.048716903,
          0.16576779,
          0.43482095,
          -0.25053698,
          -0.12331039,
          -0.51381284,
          0.27306396,
          -0.16234663,
          -0.26753423,
          -0.33179486,
          -0.007962406,
          -0.30393833,
          -0.046554416,
          0.23529208,
          0.3379014,
          -0.28580767,
          -0.04440552,
          -0.27635366,
          0.37857038,
          0.36242133,
          0.4115312,
          0.23519921,
          -0.4459469,
          0.14270955,
          0.009962559,
          -0.4488522
        ],
        "biases_l2": [
          0.0,
          0.0,
          0.0,
          0.0,
          0.0,
          0.0
        ],
        "alive": true,
        "morph_size": 1.9431008,
        "morph_speed_mult": 1.3706701,
        "morph_vision_mult": 0.85937464,
        "morph_metabolism": 1.0240871
      },
      "generation": 0,
      "offspring_count": 0,
      "age": 4,
      "energy": 70.0,
      "species_id": 0,
      "score": 64933.332,
      "evaluations": 6,
      "successes": 6,
      "best_steps_to_food": 4,
      "average_steps_to_food": 26.666666,
      "notes": "Direct foraging challenge: 6 / 6 scenarios reached food"
    },
    {
      "label": "forager-0008-02133",
      "source": "foraging_search",
      "genome": {
        "weights_l1": [
          -0.10315299,
          -0.15382594,
          -0.033391774,
          -0.13907176,
          0.14778423,
          0.15526164,
          -0.057517856,
          0.0038879216,
          -0.34750187,
          -0.08450827,
          -0.37638068,
          -0.30710447,
          0.11277133,
          -0.3068559,
          0.023298144,
          -0.18704486,
          0.2124381,
          -0.264107,
          0.29553854,
          -0.31429765,
          0.17511153,
          -0.10534546,
          0.03651145,
          -0.26562366,
          0.2938518,
          0.2538414,
          -0.37640736,
          -0.28636396,
          -0.093755305,
          0.3286398,
          -0.3607724,
          -0.21657765,
          0.116052985,
          -0.0061600804,
          -0.04147032,
          0.35981023,
          0.37499982,
          0.37225598,
          0.21612018,
          0.044456214,
          -0.37454993,
          0.34854138,
          -0.029278934,
          0.33856905,
          -0.20958576,
          0.2840588,
          0.15512878,
          0.010457367,
          0.19154269,
          -0.34740016,
          -0.15734759,
          -0.34629357,
          -0.2140532,
          -0.0154798925,
          0.01402241,
          0.1668945,
          0.11158377,
          -0.03674504,
          -0.08102897,
          -0.32221997,
          0.20442921,
          -0.16757788,
          -0.10345861,
          0.40368938,
          -0.3468868,
          0.080458015,
          -0.07377711,
          -0.21438588,
          0.23182881,
          0.32795125,
          -0.29032847,
          -0.16722776,
          0.27132273,
          0.19497329,
          0.08471823,
          -0.07130405,
          0.016669422,
          0.3610139,
          -0.34643432,
          0.23901188,
          0.05923766,
          0.16103011,
          0.23793662,
          -0.3095135,
          -0.15601382,
          -0.047653645,
          0.22428942,
          -0.2843482,
          -0.36807868,
          -0.23551972,
          -0.32901543,
          -0.3109997,
          0.3823123,
          -0.034942597,
          -0.028850764,
          -0.18263817,
          -0.18724926,
          -0.31608975,
          -0.06651941,
          0.2051549,
          -0.39161626,
          -0.19053973,
          -0.22414945,
          0.16117907,
          -0.11958286,
          -0.31320664,
          0.022405982,
          0.22986686,
          -0.3681977,
          0.04056385,
          0.17377192,
          -0.38710395,
          0.057483792,
          -0.2749676,
          0.33356524,
          -0.06937897,
          -0.18044561,
          0.13168293,
          -0.30505735,
          0.3345815,
          0.077676505,
          0.1486355,
          -0.1772485,
          -0.1259633,
          0.20352542,
          0.06996074,
          0.17539126,
          -0.34038383,
          -0.005113542,
          -0.08805522,
          0.14275295,
          -0.337008,
          -0.14612564,
          0.28434217,
          -0.24695714,
          -0.12054619,
          -0.1296517,
          0.38128132,
          -0.0428288,
          0.19748741,
          0.12529278,
          0.26033092,
          0.33035403,
          0.37622863,
          0.03473392,
          -0.10244927,
          0.39003468,
          -0.12608898,
          0.4029073,
          -0.34117332,
          0.24653858,
          -0.38132808,
          0.011098713,
          -0.20187126,
          -0.23208179,
          -0.16489807,
          0.35258454,
          0.17314333,
          -0.33345628,
          0.18247068,
          -0.1404176,
          0.34642982,
          0.10484165,
          0.28270984,
          0.32060432,
          0.035425276,
          -0.09192416,
          -0.13190758,
          -0.12456307,
          -0.19262667,
          0.4059705,
          0.15877265,
          0.16413003,
          0.26522022,
          0.3581134,
          0.29652542,
          0.30278432,
          -0.10902205,
          0.38152897,
          -0.35158074,
          -0.19469161,
          -0.074169844,
          -0.011564821,
          -0.22194844,
          0.20187175,
          0.19322264,
          0.05939445,
          -0.19218615,
          -0.083709866,
          0.33400816,
          0.21797782,
          -0.3788518,
          -0.27926472,
          -0.10612509,
          -0.11136204,
          0.34827852,
          -0.072390586,
          0.13093555,
          0.089374214,
          -0.36590236,
          0.23301548,
          -0.3849008,
          0.092585266,
          0.06859338,
          -0.31272036,
          -0.36004454,
          -0.09893823,
          -0.3109921,
          -0.11079946,
          0.04807064,
          0.19198614,
          0.36413217,
          0.16136253,
          0.14088148,
          -0.13429734,
          0.1664055,
          0.39365435,
          0.22400999,
          0.4035381,
          0.21592385,
          0.33255768,
          -0.23206289,
          0.4064986,
          0.0442487,
          0.24459136,
          0.38429576,
          -0.12959844,
          -0.0016137064,
          -0.1515783,
          0.37638098,
          0.2910726,
          -0.22892018,
          -0.13033214,
          -0.14893687,
          0.26305658,
          0.11380756,
          0.20820487,
          -0.02984047,
          0.13492894,
          -0.25533485,
          0.36846578,
          0.0091021955,
          -0.1544441,
          0.17165673,
          0.1129446,
          0.03268689,
          -0.3037374,
          0.31890273,
          0.09518182,
          -0.13181561,
          -0.3179391,
          0.09010732,
          -0.34532177,
          0.07010177,
          0.3472039,
          -0.28251266,
          0.35107404,
          -0.33742303,
          -0.37770355,
          -0.023270011,
          0.2084201,
          0.2555995,
          0.19260591,
          0.19235414,
          -0.29998565,
          -0.28539687,
          0.31325167,
          0.12244642,
          0.35844058,
          0.21939349,
          0.15561044,
          0.23550326,
          -0.07515401,
          0.15810764,
          0.12132698,
          0.13826543,
          -0.2680129,
          -0.07393712,
          -0.08209577,
          -0.25809586,
          -0.3336607,
          -0.27019924,
          0.14185113,
          0.033240438,
          -0.0026662648,
          -0.17028706,
          0.20047247,
          -0.1852656,
          -0.27952227,
          0.3530792,
          0.06960839,
          0.009492099,
          -0.16495569,
          0.022954077,
          -0.16349801,
          -0.21642765,
          -0.06235653,
          0.15803885,
          -0.1962805,
          0.3758602,
          0.048303246,
          0.14875221,
          -0.3965033,
          -0.17617771,
          0.21955395,
          0.379826,
          -0.14945546,
          -0.088997215,
          0.18785506,
          0.11958462,
          -0.29233804,
          0.40759188,
          -0.28148997,
          0.30325115,
          0.21321845,
          -0.033403575,
          0.31917214,
          -0.3212728,
          0.023506165,
          0.24849033
        ],
        "biases_l1": [
          0.0,
          0.0,
          0.0,
          0.0,
          0.0,
          0.0,
          0.0,
          0.0,
          0.0,
          0.0,
          0.0,
          0.0,
          0.0,
          0.0,
          0.0,
          0.0
        ],
        "weights_l2": [
          -0.37142056,
          -0.059258938,
          -0.25808677,
          -0.18395737,
          -0.28479046,
          -0.13188401,
          -0.40035006,
          0.098905146,
          -0.2910274,
          0.23594463,
          -0.12304866,
          0.4693362,
          0.18322772,
          0.4312622,
          0.07288808,
          0.28883278,
          0.26587075,
          0.4752193,
          0.427526,
          0.47705048,
          -0.40129,
          0.30129933,
          0.0048166513,
          0.46540684,
          0.3083815,
          -0.3585207,
          0.14291102,
          0.17293906,
          -0.01850009,
          0.3428998,
          -0.043890297,
          -0.028201282,
          -0.4573875,
          0.10466486,
          -0.14854819,
          -0.4113214,
          0.26669264,
          0.167656,
          -0.17573881,
          0.37060142,
          -0.34721726,
          -0.44142443,
          -0.23469383,
          -0.45348185,
          0.51989657,
          -0.28733417,
          -0.3770454,
          0.41951418,
          -0.3049578,
          0.08735138,
          0.51992613,
          -0.27253157,
          -0.33930814,
          0.088805676,
          0.28457516,
          -0.32315186,
          0.3685878,
          0.036040902,
          -0.35132998,
          0.0750128,
          0.2038827,
          0.3369199,
          0.20889336,
          -0.44950014,
          0.4197957,
          -0.44241667,
          0.27029997,
          0.055695713,
          -0.36797982,
          0.03264904,
          -0.35323322,
          0.40997732,
          0.49007517,
          0.019336164,
          0.29958624,
          0.0057452917,
          0.072155416,
          0.4233107,
          -0.1472792,
          0.43889105,
          0.0058228374,
          0.235187,
          -0.23399422,
          -0.009170651,
          0.46271688,
          0.28967845,
          0.19323683,
          -0.044745922,
          0.24437338,
          0.43817073,
          -0.017839313,
          0.12914068,
          -0.32929245,
          -0.34683666,
          0.3062312,
          -0.2747664
        ],
        "biases_l2": [
          0.0,
          0.0,
          0.0,
          0.0,
          0.0,
          0.0
        ],
        "alive": true,
        "morph_size": 1.5068684,
        "morph_speed_mult": 1.0784956,
        "morph_vision_mult": 1.09568,
        "morph_metabolism": 0.7148357
      },
      "generation": 0,
      "offspring_count": 0,
      "age": 7,
      "energy": 70.0,
      "species_id": 0,
      "score": 64933.332,
      "evaluations": 6,
      "successes": 6,
      "best_steps_to_food": 7,
      "average_steps_to_food": 11.666667,
      "notes": "Direct foraging challenge: 6 / 6 scenarios reached food"
    },
    {
      "label": "forager-0003-02979",
      "source": "foraging_search",
      "genome": {
        "weights_l1": [
          0.22541618,
          -0.045338064,
          0.22915447,
          0.14186192,
          -0.40551817,
          -0.0743472,
          0.17406857,
          -0.17554864,
          -0.2742644,
          -0.02606693,
          0.24479157,
          0.09187722,
          -0.2500543,
          -0.34465164,
          -0.118251055,
          -0.15847442,
          0.32387638,
          0.34773272,
          -0.1351023,
          0.024040818,
          0.3335513,
          0.012255311,
          0.111215174,
          0.21908468,
          -0.25776997,
          -0.23927185,
          -0.1773869,
          -0.21978052,
          -0.15404028,
          -0.032393336,
          0.10229927,
          -0.15637687,
          0.19575638,
          0.18820584,
          0.22426248,
          0.23665297,
          0.21832246,
          0.25112224,
          0.16281259,
          -0.31601822,
          -0.030146092,
          -0.22409387,
          -0.23505446,
          -0.22150022,
          -0.19876377,
          0.32596517,
          -0.26947796,
          0.22128636,
          0.24339801,
          -0.1264787,
          0.19338727,
          -0.005864948,
          -0.07046056,
          0.31415117,
          0.12027061,
          -0.19525099,
          -0.2825625,
          -0.17416222,
          -0.36437795,
          0.09185165,
          0.006645292,
          0.16032803,
          0.2254836,
          0.15205163,
          0.3605814,
          -0.16630407,
          0.27669483,
          -0.33778465,
          -0.26096565,
          -0.118763626,
          -0.31046113,
          0.36189765,
          -0.08002275,
          0.27764195,
          -0.057668835,
          -0.35858452,
          0.3610891,
          -0.34537843,
          0.28651613,
          -0.22329281,
          -0.12252432,
          -0.3413459,
          0.15289378,
          0.2994727,
          -0.38270786,
          -0.013283074,
          -0.17959677,
          -0.36720878,
          0.2659127,
          0.12443817,
          -0.10414258,
          0.28802,
          0.3400792,
          0.40740734,
          0.37884086,
          -0.2415772,
          0.18691921,
          -0.2461699,
          -0.18280977,
          0.2715447,
          0.1360907,
          -0.1881932,
          -0.40785983,
          -0.3200177,
          -0.34614262,
          -0.2887329,
          -0.28713778,
          0.23772717,
          -0.3366686,
          -0.055111855,
          -0.24374035,
          0.09338808,
          0.35745984,
          0.2112574,
          0.27994078,
          -0.24605963,
          -0.26626432,
          0.40563875,
          -0.34178448,
          0.36588532,
          0.2715332,
          0.094184816,
          0.06295824,
          0.13908929,
          -0.17708156,
          0.29876882,
          0.28818196,
          -0.013349056,
          0.00088748336,
          0.11842215,
          -0.06433961,
          -0.33538884,
          -0.013314307,
          -0.14245725,
          -0.14180744,
          0.119615376,
          -0.0982461,
          0.2198314,
          0.10384983,
          -0.05245611,
          0.18948442,
          -0.29852965,
          0.32404304,
          -0.28812367,
          -0.03019914,
          -0.28391418,
          -0.27443793,
          -0.28621155,
          0.29419762,
          0.3355549,
          -0.086506635,
          0.3406955,
          0.23563254,
          -0.20104276,
          -0.012142211,
          0.05739066,
          0.40331793,
          0.15813732,
          0.37989658,
          0.30946064,
          -0.37138268,
          -0.23674116,
          0.3748455,
          -0.11381,
          -0.110851526,
          -0.3149503,
          0.38998592,
          -0.18262307,
          -0.11851221,
          0.32507902,
          -0.13409606,
          0.06294072,
          0.40184313,
          -0.13688534,
          0.19021815,
          0.16479546,
          -0.14534408,
          0.19054765,
          0.38774395,
          -0.17317964,
          -0.27219498,
          -0.08884549,
          0.33747864,
          0.1487115,
          0.34084433,
          -0.3219623,
          0.13167876,
          0.031232536,
          0.40544266,
          -0.011322081,
          0.32989776,
          0.09471345,
          -0.35578695,
          0.2543766,
          0.16832852,
          -0.18068117,
          0.060275912,
          0.36340958,
          0.11405653,
          -0.21608095,
          0.06899831,
          -0.030881733,
          -0.3302869,
          0.16461301,
          -0.09431839,
          0.11983234,
          -0.3730833,
          -0.2210112,
          0.33595204,
          0.16816032,
          0.3398707,
          0.34704024,
          0.09756845,
          -0.36460453,
          0.30469555,
          0.19443774,
          -0.022914648,
          0.11023104,
          0.07675058,
          0.048104882,
          -0.12688574,
          -0.3217729,
          0.06859788,
          0.10921162,
          0.13806015,
          0.17392665,
          0.32230407,
          0.065698,
          -0.22218876,
          -0.24240142,
          -0.059311032,
          -0.2439356,
          0.093682766,
          0.40726173,
          0.03538081,
          0.24215555,
          0.11617762,
          -0.24560526,
          0.15009212,
          -0.40454552,
          0.17554843,
          -0.10435283,
          0.28131342,
          0.3457603,
          -0.019081652,
          -0.09698182,
          0.33836424,
          0.36303532,
          -0.40278095,
          -0.2705693,
          0.0055766404,
          -0.29217452,
          -0.055709988,
          -0.40292424,
          0.37171412,
          0.14840317,
          -0.26023418,
          0.3692543,
          -0.1820494,
          0.14469999,
          -0.12788156,
          -0.35324323,
          0.3844515,
          -0.19143365,
          -0.3689428,
          -0.29253182,
          0.18126243,
          -0.2572688,
          -0.31172484,
          -0.34944367,
          0.39327443,
          0.0041475,
          0.3480224,
          0.27694386,
          -0.32453126,
          0.24582195,
          0.13568735,
          -0.30071878,
          0.030552834,
          0.2817065,
          -0.05453846,
          -0.08694163,
          0.22236675,
          -0.19130576,
          -0.18399519,
          -0.16349354,
          0.30409694,
          0.10031247,
          0.2491386,
          0.3414088,
          -0.18676649,
          0.40256304,
          -0.0178307,
          0.2572434,
          0.12824386,
          0.09487486,
          0.31404293,
          0.37421137,
          0.39960253,
          0.058782816,
          0.4068439,
          0.01546365,
          0.28209752,
          0.10569739,
          -0.1491434,
          0.14241916,
          0.18990111,
          0.0014466643,
          0.053328127,
          -0.10504234,
          -0.014906883,
          -0.14341453,
          0.37489253,
          -0.16617607,
          0.20005238,
          -0.088400364,
          0.23597056,
          0.40369236,
          -0.1195856,
          0.3912276
        ],
        "biases_l1": [
          0.0,
          0.0,
          0.0,
          0.0,
          0.0,
          0.0,
          0.0,
          0.0,
          0.0,
          0.0,
          0.0,
          0.0,
          0.0,
          0.0,
          0.0,
          0.0
        ],
        "weights_l2": [
          0.14568299,
          -0.3705101,
          -0.10087478,
          0.33803153,
          0.1863355,
          0.48137122,
          -0.071395665,
          -0.015145123,
          0.2515608,
          -0.19375417,
          0.16830206,
          -0.29725862,
          -0.058962733,
          0.3100468,
          0.27932256,
          -0.21618778,
          0.19506252,
          0.20128256,
          -0.40018472,
          -0.23835665,
          0.35239828,
          0.40680057,
          0.4497885,
          0.43149364,
          -0.08310771,
          -0.37407547,
          0.023952007,
          0.03319025,
          -0.4391006,
          -0.35709602,
          -0.10851747,
          -0.072054595,
          0.012952387,
          -0.40811354,
          -0.43351555,
          -0.2987626,
          0.045324624,
          0.35565883,
          -0.33740103,
          -0.31507564,
          -0.18013105,
          0.18676603,
          -0.24047783,
          0.51466936,
          0.43013525,
          -0.45882833,
          -0.46391556,
          0.14769864,
          0.33760524,
          0.47170216,
          -0.19215024,
          0.48324162,
          -0.30280727,
          -0.07901022,
          0.054443,
          0.08091736,
          0.44333082,
          -0.4331002,
          0.02633512,
          -0.39214835,
          -0.39098567,
          -0.288781,
          -0.23726669,
          0.11708176,
          -0.31283385,
          -0.2992524,
          -0.1729762,
          0.12996584,
          0.50661284,
          0.23493463,
          0.015168428,
          0.45936793,
          0.50028723,
          -0.12912649,
          0.100146174,
          0.37308723,
          0.43102473,
          0.31761974,
          -0.10670099,
          -0.42342302,
          0.33528948,
          -0.2913602,
          -0.0029985905,
          0.41088933,
          -0.12708876,
          -0.2551238,
          -0.4976588,
          0.03735614,
          -0.48392045,
          -0.045030415,
          0.17141867,
          0.005816877,
          -0.4671892,
          -0.17795411,
          -0.115137786,
          -0.1817204
        ],
        "biases_l2": [
          0.0,
          0.0,
          0.0,
          0.0,
          0.0,
          0.0
        ],
        "alive": true,
        "morph_size": 0.8151682,
        "morph_speed_mult": 1.377449,
        "morph_vision_mult": 1.4881246,
        "morph_metabolism": 1.2823789
      },
      "generation": 0,
      "offspring_count": 0,
      "age": 7,
      "energy": 70.0,
      "species_id": 0,
      "score": 64925.0,
      "evaluations": 6,
      "successes": 6,
      "best_steps_to_food": 7,
      "average_steps_to_food": 12.5,
      "notes": "Direct foraging challenge: 6 / 6 scenarios reached food"
    },
    {
      "label": "forager-0003-05519",
      "source": "foraging_search",
      "genome": {
        "weights_l1": [
          0.14441615,
          -0.21133067,
          -0.123747796,
          0.0089809,
          0.32193702,
          0.25558758,
          0.059143245,
          0.3008647,
          0.16193348,
          -0.11837661,
          -0.33213693,
          -0.029529095,
          -0.38307306,
          -0.24073166,
          0.24792922,
          -0.37247163,
          0.2912373,
          -0.36398625,
          0.34467995,
          -0.013874382,
          0.034323186,
          -0.10685277,
          0.25698507,
          0.18451369,
          -0.104646206,
          0.31955487,
          0.097079456,
          -0.32144937,
          -0.3324307,
          -0.19373998,
          0.38111132,
          -0.30099142,
          -0.28238973,
          0.11418998,
          0.3557964,
          -0.40405235,
          -0.3020404,
          0.30564952,
          -0.05852166,
          -0.27844214,
          -0.29071355,
          -0.27452874,
          -0.178325,
          0.2530114,
          0.20206273,
          -0.001288712,
          0.16961467,
          -0.037285328,
          -0.31265864,
          -0.17655362,
          0.4047836,
          -0.25216,
          0.34063572,
          0.19773352,
          0.27591592,
          0.06895742,
          -0.038357288,
          -0.045749903,
          -0.26908493,
          -0.28139985,
          -0.25844547,
          0.2216804,
          -0.25762805,
          0.19730055,
          -0.3367016,
          0.39882123,
          0.2168715,
          -0.3554563,
          -0.28753957,
          -0.25797224,
          0.032181352,
          -0.2375903,
          0.006741643,
          0.21349365,
          0.11325902,
          0.2879722,
          -0.025747657,
          -0.23511879,
          0.06517443,
          0.33131164,
          0.2794038,
          -0.025405526,
          -0.24638452,
          0.40187013,
          0.16820967,
          -0.3164577,
          0.37766635,
          0.40354013,
          -0.30825195,
          0.0064682364,
          0.07661575,
          -0.20697798,
          -0.011266798,
          -0.31896824,
          0.36112833,
          0.3505174,
          0.07608947,
          0.2398681,
          0.22387761,
          -0.05119601,
          0.16594976,
          -0.23413923,
          -0.38130733,
          0.08428851,
          0.3935961,
          0.2661693,
          0.2077002,
          0.39735937,
          -0.21965486,
          0.37256294,
          0.1237154,
          0.21679151,
          -0.14316165,
          0.22582614,
          0.22604054,
          -0.3774064,
          -0.25115293,
          -0.23684472,
          0.3304687,
          0.1628443,
          0.2100724,
          -0.033479273,
          0.112757444,
          0.35970783,
          0.16044259,
          0.34787273,
          -0.36467403,
          -0.16417469,
          -0.27758142,
          0.14844972,
          -0.18176293,
          0.35117918,
          0.14663202,
          0.2287808,
          -0.087895215,
          0.19169605,
          0.24202496,
          0.18314713,
          -0.03638783,
          -0.025395423,
          0.36225516,
          -0.11355546,
          0.107593834,
          -0.36082506,
          -0.3816295,
          -0.34935814,
          -0.3089066,
          -0.3922577,
          0.10252702,
          0.20354426,
          0.18918872,
          -0.33669013,
          -0.28878534,
          0.18033993,
          -0.06419361,
          0.14723748,
          -0.03374064,
          -0.19852832,
          0.0035926104,
          -0.23607083,
          0.051988125,
          0.18928373,
          -0.019218206,
          0.22218806,
          0.23651761,
          0.16552967,
          0.14369065,
          -0.27078247,
          0.24886692,
          -0.10311833,
          -0.35314715,
          0.026042879,
          -0.07201207,
          -0.05393654,
          -0.3068996,
          -0.08228886,
          0.18129808,
          0.24570185,
          -0.099583566,
          0.37556297,
          -0.2626683,
          -0.072323054,
          -0.37573838,
          0.086024255,
          0.24653858,
          0.23189121,
          0.029582411,
          0.083286434,
          -0.32716948,
          0.2105887,
          0.0057335496,
          0.18465841,
          -0.32011697,
          0.27685666,
          0.03220558,
          0.03175211,
          0.36405587,
          -0.4017755,
          0.2578779,
          -0.027593493,
          -0.32734236,
          0.05807832,
          -0.37953538,
          -0.0838615,
          -0.30756545,
          -0.37189397,
          -0.3519299,
          -0.21007895,
          -0.34189603,
          0.12111765,
          -0.39867482,
          0.23068047,
          -0.40021533,
          0.03472984,
          0.088386744,
          -0.28573245,
          0.17765313,
          0.14249474,
          0.2317453,
          -0.24228851,
          -0.3886829,
          0.040338516,
          -0.39440012,
          0.20909327,
          0.06849897,
          0.33634448,
          0.021191657,
          -0.09016582,
          -0.21906832,
          -0.0310103,
          -0.143893,
          -0.067721486,
          -0.29061103,
          0.21139073,
          -0.40047374,
          -0.25808474,
          0.11948216,
          0.17120999,
          0.054654002,
          0.38275033,
          -0.40791893,
          -0.275859,
          0.11494994,
          -0.24241583,
          -0.3170666,
          0.3493399,
          -0.18196374,
          0.04170519,
          -0.34847432,
          -0.108391404,
          -0.23283748,
          -0.048001617,
          -0.19845717,
          0.11404741,
          0.17653775,
          -0.22217445,
          -0.025034606,
          -0.007199198,
          0.017680615,
          -0.17664999,
          -0.32216215,
          -0.02962029,
          -0.24764013,
          -0.059268028,
          0.15841836,
          -0.25664032,
          0.008900017,
          0.04022345,
          0.09586519,
          -0.23019953,
          -0.045567006,
          0.27721095,
          0.3293333,
          -0.21652664,
          -0.27976814,
          -0.27413297,
          0.22754318,
          0.37908238,
          -0.32938412,
          -0.08011773,
          -0.25749227,
          -0.13814145,
          0.34550244,
          -0.08941227,
          0.13262016,
          -0.088819385,
          0.23355311,
          0.11213398,
          0.17890579,
          -0.14306033,
          -0.2145091,
          -0.06626856,
          0.30222112,
          -0.075799435,
          -0.12968022,
          0.26318562,
          -0.2452715,
          0.014105648,
          0.34845155,
          -0.2630009,
          -0.24597105,
          -0.36033624,
          0.23293936,
          -0.059319705,
          0.31173545,
          0.40017825,
          -0.08182031,
          0.3672989,
          0.0006727576,
          -0.3249783,
          0.08934909,
          0.2205149,
          0.18178004,
          -0.0810498,
          -0.036447883,
          0.3310563,
          0.2270912,
          -0.0946677,
          0.30778813,
          -0.39255992
        ],
        "biases_l1": [
          0.0,
          0.0,
          0.0,
          0.0,
          0.0,
          0.0,
          0.0,
          0.0,
          0.0,
          0.0,
          0.0,
          0.0,
          0.0,
          0.0,
          0.0,
          0.0
        ],
        "weights_l2": [
          0.37347013,
          -0.15361488,
          0.31190664,
          -0.014445543,
          -0.45771384,
          -0.32065457,
          -0.045933366,
          0.46673846,
          -0.23237956,
          -0.3299658,
          0.28970635,
          -0.49797106,
          0.42935956,
          -0.44316345,
          -0.40458217,
          0.09414542,
          0.13693601,
          -0.18109971,
          0.40252006,
          0.1871733,
          -0.18320394,
          0.3179217,
          0.3895285,
          -0.09977177,
          0.49627942,
          0.08935237,
          0.50414926,
          -0.3687808,
          -0.20885065,
          -0.41817245,
          0.4016168,
          0.3817988,
          -0.45465016,
          0.09946984,
          0.33545023,
          0.36570978,
          0.31552958,
          0.17667204,
          0.29611975,
          -0.4594332,
          0.14708573,
          0.0037683249,
          0.15937549,
          -0.4495262,
          -0.4476112,
          0.44226563,
          0.19083369,
          0.4188494,
          0.43630075,
          0.44122136,
          -0.45959383,
          0.39967746,
          -0.36196488,
          0.06742692,
          0.48692685,
          -0.079622805,
          -0.37733638,
          0.5170378,
          -0.102185875,
          -0.15369794,
          0.07706612,
          0.06424409,
          0.40800732,
          -0.44956627,
          -0.4677689,
          0.11887723,
          0.333435,
          -0.19897562,
          -0.44363236,
          -0.33855936,
          0.44741285,
          0.1497345,
          0.45634508,
          -0.5103883,
          -0.3820151,
          0.2936862,
          0.09591156,
          0.36099666,
          -0.32824045,
          0.05118668,
          0.17039883,
          0.10509902,
          0.29491585,
          0.29219145,
          -0.39981842,
          -0.4238552,
          -0.0648233,
          -0.45287526,
          -0.44127652,
          0.35733086,
          0.37614185,
          -0.3324504,
          0.36436993,
          0.089745104,
          -0.38855,
          0.069634736
        ],
        "biases_l2": [
          0.0,
          0.0,
          0.0,
          0.0,
          0.0,
          0.0
        ],
        "alive": true,
        "morph_size": 1.0935807,
        "morph_speed_mult": 0.8874582,
        "morph_vision_mult": 0.9749756,
        "morph_metabolism": 1.1183223
      },
      "generation": 0,
      "offspring_count": 0,
      "age": 6,
      "energy": 70.0,
      "species_id": 0,
      "score": 64908.332,
      "evaluations": 6,
      "successes": 6,
      "best_steps_to_food": 6,
      "average_steps_to_food": 19.166666,
      "notes": "Direct foraging challenge: 6 / 6 scenarios reached food"
    },
    {
      "label": "forager-0005-06721",
      "source": "foraging_search",
      "genome": {
        "weights_l1": [
          -0.20097141,
          -0.3143549,
          -0.20250548,
          -0.04321736,
          -0.3990115,
          -0.22140424,
          -0.3735969,
          0.3396685,
          -0.27720553,
          -0.11824384,
          0.38196987,
          0.09448707,
          -0.17465444,
          -0.2981374,
          0.0015485883,
          -0.26231247,
          -0.16330335,
          0.05368358,
          0.31459892,
          0.08695018,
          -0.15683308,
          0.097867966,
          -0.35607496,
          -0.35165113,
          0.3702377,
          -0.10301,
          0.0038238764,
          0.21188462,
          0.19193786,
          0.15777612,
          -0.038445264,
          0.034354806,
          -0.06402269,
          -0.12470761,
          0.23510587,
          0.3067056,
          -0.24798858,
          0.3528418,
          -0.117646426,
          -0.39207402,
          -0.4056933,
          0.044692546,
          0.37445056,
          0.23280829,
          0.27118164,
          -0.056142837,
          0.29324841,
          -0.02794838,
          -0.12860739,
          -0.34737623,
          -0.37614688,
          0.14768064,
          -0.07402834,
          -0.0342049,
          0.3107022,
          -0.22229408,
          0.022914857,
          0.13281953,
          -0.07537338,
          -0.13717082,
          0.052389443,
          -0.038259566,
          -0.21329953,
          -0.2716384,
          -0.28132772,
          0.09019405,
          -0.30183706,
          -0.19602811,
          -0.21273841,
          -0.29743055,
          0.35165757,
          -0.12586239,
          0.14461452,
          0.25348622,
          0.28579873,
          0.08896774,
          0.19337177,
          0.13022071,
          0.22343308,
          0.31755036,
          0.05281663,
          -0.3516959,
          0.3231215,
          0.25319266,
          0.34668595,
          -0.36987525,
          -0.40178922,
          -0.19428456,
          -0.26923397,
          -0.11442953,
          0.009068012,
          0.067961514,
          0.15271354,
          0.017261684,
          -0.18861827,
          0.3054428,
          -0.35913143,
          -0.21041067,
          0.3631158,
          -0.39442027,
          -0.20328143,
          -0.37098974,
          0.16913295,
          -0.36400455,
          0.16638112,
          0.13990766,
          0.17198253,
          -0.13063368,
          0.15254855,
          -0.22837462,
          0.12620336,
          -0.10371539,
          -0.35823548,
          0.15754485,
          -0.11621687,
          0.11273044,
          -0.2183173,
          -0.17542931,
          0.29352796,
          -0.24016955,
          0.15045995,
          0.2731796,
          0.1897161,
          -0.20674331,
          0.22327405,
          -0.3566212,
          0.31834453,
          0.05943808,
          -0.06697795,
          0.08444065,
          0.05066672,
          0.21112615,
          0.36011654,
          -0.035927624,
          0.1845414,
          0.017107338,
          -0.20175573,
          0.009704679,
          0.0113815665,
          0.35086143,
          -0.40472442,
          0.21225184,
          -0.015385687,
          -0.28754395,
          0.32707846,
          0.077126265,
          0.020106077,
          0.21602792,
          0.28863448,
          0.20721704,
          -0.12779233,
          0.26651746,
          -0.31148976,
          0.123155296,
          -0.06455609,
          -0.2888673,
          -0.28718293,
          0.13144523,
          -0.33098343,
          -0.18171339,
          0.3510931,
          0.20541453,
          -0.11228654,
          -0.11066398,
          0.35688353,
          -0.029379964,
          0.10550177,
          -0.0026434064,
          0.28852057,
          0.17304027,
          0.039419383,
          -0.061208963,
          0.31786376,
          -0.37079984,
          0.28792626,
          -0.102021396,
          -0.067299634,
          -0.15260226,
          -0.1566863,
          0.27245116,
          -0.102131754,
          0.21193326,
          0.39322042,
          -0.09996414,
          0.25394493,
          -0.35442367,
          0.36868894,
          0.34774232,
          0.2207048,
          0.15775669,
          -0.14641073,
          -0.39353812,
          -0.3932029,
          -0.2697914,
          0.17560697,
          0.09422016,
          0.30578494,
          0.3971544,
          0.40092945,
          0.14910525,
          -0.246703,
          0.08284232,
          -0.02994442,
          0.4059587,
          -0.038790017,
          0.3206666,
          0.30533427,
          0.027326912,
          0.015932322,
          0.011571944,
          -0.046117336,
          -0.035430253,
          -0.10348791,
          -0.31419545,
          0.28496957,
          0.05435753,
          0.3116429,
          0.292224,
          0.16410851,
          -0.28796571,
          0.024529815,
          0.2799304,
          0.13358521,
          -0.010282844,
          0.39498705,
          0.19508076,
          -0.08224127,
          0.18477374,
          -0.20654562,
          0.02022475,
          0.27573043,
          -0.12130764,
          -0.05240032,
          -0.38545805,
          0.26317143,
          0.09605396,
          -0.03962049,
          -0.2917521,
          0.048994124,
          -0.21057828,
          -0.26772898,
          -0.11479658,
          0.0011132061,
          -0.39804137,
          -0.3948576,
          0.33140588,
          -0.34742314,
          0.08958036,
          0.25976396,
          -0.1322982,
          0.40130937,
          -0.2398173,
          0.02905333,
          0.11430329,
          -0.077885,
          0.01839611,
          -0.26091006,
          -0.023649722,
          0.25285453,
          -0.019682497,
          -0.23751973,
          -0.10997006,
          0.079999685,
          -0.24447736,
          -0.1534332,
          0.33706015,
          -0.13250524,
          0.25788426,
          -0.109196275,
          0.25948977,
          -0.05479476,
          0.20495653,
          0.15525323,
          0.029856324,
          -0.33425677,
          -0.16700496,
          -0.2988276,
          -0.27066848,
          -0.08184883,
          0.3215499,
          0.16872478,
          0.3550942,
          -0.111878514,
          -0.015511245,
          -0.3338612,
          -0.14493352,
          -0.07590142,
          -0.22079153,
          0.26005918,
          -0.07210347,
          -0.24825752,
          -0.15567392,
          0.30789638,
          0.12114352,
          -0.018496662,
          -0.23550901,
          -0.23795646,
          0.29201263,
          -0.22824429,
          -0.062925726,
          0.0009787977,
          0.075232446,
          0.39526045,
          0.06555608,
          0.22523463,
          0.19578332,
          0.136285,
          -0.37027317,
          0.002776444,
          -0.12362671,
          0.39356273,
          0.3593614,
          0.20125037,
          0.019014299,
          0.35946673,
          0.40647393,
          -0.30156142,
          0.2663669,
          -0.023602992,
          0.029242426
        ],
        "biases_l1": [
          0.0,
          0.0,
          0.0,
          0.0,
          0.0,
          0.0,
          0.0,
          0.0,
          0.0,
          0.0,
          0.0,
          0.0,
          0.0,
          0.0,
          0.0,
          0.0
        ],
        "weights_l2": [
          -0.4473871,
          -0.017454326,
          0.4589892,
          -0.45851967,
          0.31204706,
          0.19501024,
          -0.48247504,
          0.49044234,
          0.15464783,
          -0.43257228,
          -0.16288093,
          -0.013142765,
          -0.37209365,
          -0.36301512,
          0.1121676,
          0.029240668,
          0.41344953,
          0.2255711,
          -0.0722954,
          -0.107141644,
          -0.21737823,
          0.45908207,
          -0.25418165,
          -0.104696244,
          0.36524075,
          -0.38852012,
          -0.2553722,
          0.42291778,
          -0.050892115,
          -0.39988914,
          0.519267,
          -0.396271,
          -0.27545553,
          -0.21453989,
          -0.026894301,
          -0.4408852,
          0.34818226,
          0.35347104,
          0.4452824,
          -0.020192683,
          -0.03485149,
          -0.24821761,
          0.057456374,
          0.3300553,
          0.32537758,
          0.18153018,
          -0.23185176,
          0.48114616,
          0.41162008,
          0.31958812,
          -0.27403763,
          -0.34284574,
          -0.32750773,
          0.5002791,
          -0.40812275,
          -0.11684185,
          -0.4676907,
          -0.14185914,
          -0.101489246,
          -0.06161976,
          0.1355257,
          -0.10830143,
          -0.49612707,
          -0.45267606,
          -0.18900996,
          0.20519805,
          0.1227811,
          -0.49828917,
          -0.21460775,
          0.21991497,
          -0.04072523,
          0.21535641,
          0.23550004,
          0.3703404,
          0.19774163,
          -0.03502354,
          -0.4106676,
          -0.39740416,
          0.011379719,
          0.49363846,
          0.44259435,
          -0.24120048,
          0.3083877,
          -0.21861798,
          0.27681082,
          0.45345247,
          -0.20413756,
          0.2771616,
          0.22534448,
          0.36421126,
          0.43081468,
          0.18203145,
          0.06867963,
          -0.51255214,
          0.026148617,
          -0.08479956
        ],
        "biases_l2": [
          0.0,
          0.0,
          0.0,
          0.0,
          0.0,
          0.0
        ],
        "alive": true,
        "morph_size": 0.8823181,
        "morph_speed_mult": 0.79970706,
        "morph_vision_mult": 1.2895381,
        "morph_metabolism": 1.0587854
      },
      "generation": 0,
      "offspring_count": 0,
      "age": 7,
      "energy": 70.0,
      "species_id": 0,
      "score": 64906.668,
      "evaluations": 6,
      "successes": 6,
      "best_steps_to_food": 7,
      "average_steps_to_food": 14.333333,
      "notes": "Direct foraging challenge: 6 / 6 scenarios reached food"
    },
    {
      "label": "forager-0003-02571",
      "source": "foraging_search",
      "genome": {
        "weights_l1": [
          0.40174162,
          -0.20445791,
          -0.39184344,
          0.31043673,
          -0.34984928,
          0.36080366,
          0.384488,
          0.21308678,
          -0.39270145,
          -0.39661184,
          -0.17422657,
          -0.294712,
          -0.04925996,
          0.1994304,
          0.22043103,
          0.07515058,
          0.27010775,
          -0.2854427,
          -0.2659105,
          0.27171588,
          -0.20817004,
          0.05009353,
          0.2082408,
          0.15121895,
          -0.105860054,
          0.28988558,
          0.17275691,
          0.18098044,
          -0.08877784,
          -0.28503653,
          -0.3276372,
          0.3541988,
          0.2949491,
          -0.27696705,
          0.2753985,
          -0.24654473,
          -0.3489204,
          -0.18610413,
          0.35520422,
          -0.39036074,
          0.0012636781,
          -0.40768474,
          0.1926443,
          0.12956089,
          -0.115205556,
          0.29856896,
          0.21080118,
          0.27784425,
          0.21129388,
          0.31194597,
          0.35424107,
          -0.031622738,
          0.24150711,
          -0.26822746,
          0.2561667,
          0.06674191,
          0.3380599,
          0.34356153,
          0.048251957,
          0.2515744,
          -0.009615719,
          0.39213717,
          0.12100619,
          -0.0006928146,
          0.27835375,
          -0.12735587,
          -0.12166515,
          -0.2704523,
          -0.004148096,
          0.08972761,
          -0.25480264,
          -0.39618677,
          0.3209945,
          -0.018866062,
          0.016313761,
          -0.36841038,
          -0.0403322,
          0.23433352,
          -0.17915215,
          -0.026872545,
          0.19845808,
          0.2600032,
          0.19852781,
          -0.29715645,
          0.21761912,
          0.21095741,
          0.1895051,
          -0.31718847,
          0.18046379,
          0.2831394,
          0.20752609,
          0.3691001,
          0.30378646,
          0.08116117,
          0.36122274,
          -0.15874374,
          0.060205847,
          -0.22625566,
          -0.121715546,
          0.023992449,
          -0.28443307,
          0.40170842,
          0.3745104,
          -0.21195,
          0.0055728555,
          0.2017827,
          0.3843789,
          0.07611731,
          -0.39022818,
          0.33643645,
          0.2878878,
          0.3123324,
          0.078921705,
          0.067305386,
          0.05589336,
          -0.24450889,
          -0.119098246,
          0.32827187,
          0.15075213,
          0.39168417,
          -0.35611224,
          -0.2041735,
          0.17518723,
          0.25110084,
          -0.38516867,
          0.083352745,
          0.1637044,
          0.062111527,
          -0.31211495,
          -0.28957403,
          -0.27319324,
          -0.086199254,
          -0.04593435,
          -0.33273426,
          0.28987384,
          -0.38443807,
          0.15678936,
          -0.075944066,
          -0.07109323,
          -0.0095537305,
          0.21998763,
          -0.35683826,
          0.13638592,
          -0.216966,
          0.14829355,
          0.26159507,
          0.03603965,
          0.15353745,
          -0.38080257,
          0.17111868,
          0.3305562,
          0.19136816,
          -0.1463685,
          0.26223427,
          -0.18743265,
          -0.28497317,
          0.36810738,
          0.29555553,
          0.27484924,
          0.17291594,
          0.3869388,
          0.36972028,
          0.304555,
          0.20221817,
          -0.30084044,
          0.06778699,
          -0.3187822,
          0.11505473,
          -0.11683726,
          0.02017188,
          0.06894466,
          -0.20508844,
          -0.2791919,
          0.013881773,
          0.06523791,
          0.33204097,
          0.28383476,
          -0.24110405,
          -0.15854003,
          0.028846473,
          -0.019706815,
          -0.26161486,
          -0.03898731,
          0.27513152,
          0.24026054,
          0.11778802,
          0.11381221,
          0.14010519,
          -0.39388803,
          -0.09377399,
          0.1439656,
          -0.01023224,
          -0.055017143,
          0.38503617,
          0.3525573,
          -0.019267261,
          -0.25192934,
          0.35347557,
          0.18707818,
          0.39986432,
          -0.35633123,
          0.20596981,
          -0.15779328,
          0.17755288,
          0.16765624,
          -0.304734,
          0.19599473,
          -0.40497866,
          -0.13162047,
          -0.36322522,
          0.26031464,
          -0.033073902,
          0.25989127,
          -0.37849057,
          -0.19493057,
          -0.31952175,
          0.25773686,
          0.37117338,
          -0.088318825,
          -0.023234308,
          -0.2824964,
          -0.23852344,
          0.14237535,
          -0.09452939,
          -0.33198363,
          -0.2674948,
          0.3412947,
          -0.38170385,
          0.015361726,
          0.28276688,
          0.32080823,
          0.26595062,
          -0.3978732,
          0.23388857,
          -0.38450554,
          -0.36090127,
          -0.12962696,
          0.049019933,
          -0.31868702,
          -0.054947466,
          -0.19772483,
          -0.3706361,
          0.27393025,
          -0.31252432,
          -0.18909754,
          0.018250793,
          -0.042857617,
          0.27247798,
          -0.220055,
          0.025522143,
          0.07899675,
          0.07883215,
          -0.08983624,
          -0.3360771,
          0.24051142,
          0.22885185,
          0.37934947,
          0.3000723,
          -0.2193283,
          -0.26986295,
          -0.084416986,
          0.22609836,
          0.19777143,
          -0.042347193,
          0.37797093,
          -0.24744536,
          -0.12576824,
          -0.08491504,
          -0.04636398,
          0.105118096,
          0.22427344,
          0.17327201,
          0.26695198,
          0.34206665,
          -0.34791553,
          0.1340869,
          -0.21156728,
          -0.40816948,
          -0.38723925,
          0.26974148,
          -0.3258263,
          -0.15213585,
          -0.20042196,
          0.3088928,
          0.004775405,
          0.10560876,
          0.28563136,
          0.15575069,
          -0.20482077,
          -0.31942832,
          -0.31011802,
          -0.19918232,
          0.103918135,
          -0.0018752217,
          0.018841714,
          -0.11309275,
          0.26086843,
          0.11650896,
          -0.37193903,
          0.133843,
          -0.24188,
          0.2475788,
          0.22362882,
          -0.106015384,
          -0.061070174,
          0.20790577,
          -0.29426408,
          -0.08791575,
          -0.19309057,
          0.283023,
          0.23608422,
          -0.36740258,
          0.39093435,
          -0.011828512,
          -0.14667082,
          0.2344532,
          0.3314765,
          -0.021447837,
          -0.0838255,
          0.35934353
        ],
        "biases_l1": [
          0.0,
          0.0,
          0.0,
          0.0,
          0.0,
          0.0,
          0.0,
          0.0,
          0.0,
          0.0,
          0.0,
          0.0,
          0.0,
          0.0,
          0.0,
          0.0
        ],
        "weights_l2": [
          -0.23790431,
          -0.45662376,
          -0.1667786,
          0.29213864,
          0.33904666,
          -0.12340775,
          0.3715937,
          0.25700712,
          0.23828793,
          0.43085653,
          0.13395488,
          0.46694154,
          -0.05723551,
          -0.12520182,
          0.2743494,
          -0.47175634,
          -0.41689497,
          -0.32515633,
          0.43059903,
          -0.02075398,
          0.40401214,
          -0.032322675,
          0.17056131,
          0.43887782,
          -0.25380227,
          -0.17512313,
          0.1176337,
          -0.028733552,
          -0.010912955,
          -0.44777408,
          -0.35075486,
          0.31914872,
          0.408594,
          -0.22426337,
          -0.103131175,
          0.17320341,
          0.028309822,
          0.17819977,
          0.1691255,
          0.28753674,
          0.06037593,
          0.400683,
          0.087456465,
          0.2657088,
          -0.068773985,
          0.4757735,
          0.40617353,
          -0.44644144,
          0.43453878,
          -0.2808991,
          0.3010562,
          0.10303342,
          -0.10719693,
          -0.07125524,
          -0.49324688,
          0.44168615,
          -0.30560517,
          0.21485054,
          0.40542686,
          0.058814406,
          0.14051247,
          -0.27254874,
          -0.2935059,
          0.24683243,
          0.4784897,
          -0.3441171,
          -0.36548254,
          0.2893886,
          0.37532955,
          -0.0034353733,
          -0.45036674,
          -0.18758497,
          0.21103656,
          -0.4148434,
          0.1320098,
          0.20707399,
          0.34464663,
          -0.50112504,
          0.00043988228,
          -0.20460847,
          -0.45902693,
          -0.50782007,
          0.33305138,
          0.16901726,
          0.50209457,
          0.21737546,
          -0.252026,
          0.39331973,
          -0.08773488,
          0.22045434,
          0.1743052,
          -0.31787786,
          0.3017041,
          0.4220711,
          0.13127601,
          0.40889496
        ],
        "biases_l2": [
          0.0,
          0.0,
          0.0,
          0.0,
          0.0,
          0.0
        ],
        "alive": true,
        "morph_size": 0.712553,
        "morph_speed_mult": 1.2784561,
        "morph_vision_mult": 1.0442499,
        "morph_metabolism": 0.89181674
      },
      "generation": 0,
      "offspring_count": 0,
      "age": 7,
      "energy": 70.0,
      "species_id": 0,
      "score": 64895.0,
      "evaluations": 6,
      "successes": 6,
      "best_steps_to_food": 7,
      "average_steps_to_food": 15.5,
      "notes": "Direct foraging challenge: 6 / 6 scenarios reached food"
    },
    {
      "label": "forager-0003-05035",
      "source": "foraging_search",
      "genome": {
        "weights_l1": [
          -0.27108586,
          -0.2611888,
          -0.22841433,
          -0.28243762,
          -0.34261337,
          -0.34795633,
          -0.07373235,
          0.33914077,
          -0.20150061,
          -0.12722719,
          -0.35621783,
          -0.0824343,
          0.24685162,
          0.30744815,
          0.03526625,
          0.22880447,
          0.23875237,
          0.21694762,
          0.32854044,
          0.28120565,
          0.14972836,
          0.035503924,
          -0.039479524,
          -0.17182884,
          0.27687877,
          0.27918512,
          0.3370664,
          -0.28959623,
          -0.12886113,
          0.2647665,
          0.11538857,
          0.14804077,
          0.23892933,
          0.3839845,
          -0.18930204,
          -0.18335493,
          -0.35702658,
          -0.23998131,
          0.26740563,
          0.12201339,
          -0.082414925,
          0.2888924,
          -0.05340627,
          -0.16332175,
          -0.2769984,
          -0.1748751,
          0.28750354,
          0.29298472,
          -0.14011091,
          0.04805827,
          -0.3071369,
          -0.15663168,
          0.2978409,
          0.21006286,
          -0.23308481,
          0.07825419,
          0.36120075,
          0.28274113,
          0.083945006,
          -0.36271352,
          -0.17700312,
          0.038342685,
          -0.011025786,
          0.38245744,
          0.2160784,
          -0.20102485,
          0.11222452,
          0.3011855,
          0.08488712,
          0.20823097,
          0.29689115,
          -0.1807456,
          0.35381377,
          -0.07582569,
          -0.067385584,
          -0.3393081,
          -0.21095583,
          -0.1130251,
          0.19830823,
          0.39964426,
          -0.3844509,
          -0.3863826,
          -0.22884971,
          0.08332753,
          -0.29514134,
          -0.39421362,
          0.006533444,
          0.082712084,
          0.3233571,
          -0.1724177,
          -0.28532296,
          -0.18590352,
          -0.2988991,
          -0.027570248,
          0.03972161,
          0.3373235,
          0.25943935,
          0.28509432,
          0.21238703,
          0.044762522,
          0.09964216,
          0.34187585,
          -0.2976662,
          -0.049469203,
          0.19512856,
          -0.15836862,
          0.36798435,
          -0.049767047,
          0.3175441,
          -0.022492409,
          0.27954417,
          -0.26095912,
          -0.18641822,
          0.3894679,
          0.05680743,
          -0.29901612,
          -0.11034286,
          -0.28624377,
          0.12766868,
          -0.35471627,
          -0.16102865,
          0.15094155,
          -0.18076555,
          -0.026308,
          0.40045488,
          0.33726662,
          -0.39880857,
          0.32384282,
          -0.010491729,
          -0.026575774,
          0.3253665,
          0.13405061,
          0.0024727583,
          -0.08616811,
          0.39233994,
          0.24426234,
          0.38409108,
          0.0048162937,
          0.38444656,
          -0.0222992,
          0.17313027,
          -0.29678503,
          -0.021330446,
          -0.058249235,
          -0.19287634,
          -0.06908035,
          0.18218929,
          -0.2109755,
          -0.22610722,
          -0.19816858,
          0.01151976,
          -0.33580837,
          0.13500595,
          -0.13320777,
          -0.025438428,
          -0.033197403,
          -0.26129383,
          -0.32678783,
          -0.03855449,
          0.16566086,
          -0.15506959,
          -0.02409786,
          0.32752216,
          -0.39676932,
          -0.0100821555,
          0.37045228,
          -0.34211338,
          0.056169093,
          0.13994962,
          0.07194674,
          -0.36006498,
          -0.15567392,
          0.35127085,
          0.3350582,
          -0.2899418,
          -0.15124816,
          0.30073482,
          -0.26299146,
          0.37799972,
          0.07534808,
          -0.040195912,
          0.33820045,
          -0.19907106,
          0.15060222,
          0.10039544,
          0.40798533,
          0.32045215,
          0.29046297,
          -0.2938698,
          -0.23461597,
          -0.36119366,
          -0.37986436,
          -0.3077897,
          0.015830219,
          0.24957544,
          -0.24899638,
          0.2938683,
          0.2955745,
          -0.21945658,
          0.19094944,
          0.39098465,
          0.14872408,
          -0.3647075,
          0.042058587,
          -0.06794709,
          0.30135274,
          0.15775871,
          -0.16766995,
          -0.2512852,
          0.23507899,
          0.10453856,
          0.37043786,
          0.37638825,
          0.23491967,
          0.18063855,
          -0.3385602,
          0.36427867,
          0.4061538,
          -0.04452184,
          -0.0685828,
          0.17314565,
          0.057113916,
          -0.037311226,
          0.19043744,
          -0.12463364,
          -0.1716184,
          0.26487583,
          0.32070416,
          -0.20834816,
          -0.07396108,
          -0.28826284,
          -0.21557374,
          0.08879778,
          0.2935074,
          0.2613513,
          -0.14140397,
          0.3420614,
          -0.19121115,
          -0.17163202,
          0.23879522,
          0.24274403,
          -0.39970365,
          0.03454539,
          0.21449947,
          0.39127648,
          0.27957666,
          -0.122464925,
          -0.21403761,
          0.36687553,
          -0.26416296,
          -0.07872498,
          -0.24502943,
          -0.14395365,
          0.010217428,
          0.2167986,
          0.18374085,
          0.27877116,
          -0.18363214,
          -0.40754905,
          0.008294523,
          0.3966834,
          -0.14310011,
          0.0327197,
          0.049238056,
          -0.31867796,
          -0.1229257,
          0.052066177,
          0.16978431,
          0.3533123,
          0.15689403,
          0.34587866,
          0.2696669,
          -0.32176998,
          0.15566641,
          0.24208587,
          0.054278284,
          0.30934775,
          -0.19242305,
          -0.26064825,
          -0.20017998,
          0.39945972,
          0.10241783,
          0.14155138,
          0.12566578,
          -0.3202625,
          -0.101733774,
          -0.2343629,
          0.081686765,
          0.3131798,
          -0.19029504,
          -0.18236388,
          -0.19808877,
          -0.07914859,
          0.0031133294,
          -0.1419698,
          0.3745101,
          0.37819237,
          -0.33615205,
          0.018916458,
          0.36378837,
          0.40215158,
          0.08503127,
          0.17529565,
          -0.010483265,
          -0.017220706,
          0.18181723,
          -0.25627074,
          0.09021604,
          0.36404914,
          0.36522824,
          0.38554806,
          0.17454487,
          0.24173516,
          -0.20788367,
          0.14390159,
          0.059868664,
          -0.22043626,
          -0.21905567,
          -0.36078846,
          -0.26375717
        ],
        "biases_l1": [
          0.0,
          0.0,
          0.0,
          0.0,
          0.0,
          0.0,
          0.0,
          0.0,
          0.0,
          0.0,
          0.0,
          0.0,
          0.0,
          0.0,
          0.0,
          0.0
        ],
        "weights_l2": [
          -0.24696654,
          -0.27014795,
          0.37985831,
          -0.50569874,
          0.046361566,
          -0.33400577,
          0.37258607,
          -0.14757043,
          0.10816771,
          -0.1016272,
          -0.4428243,
          -0.21053725,
          0.46932888,
          -0.23117182,
          0.3438061,
          -0.34206954,
          0.30401266,
          -0.28585014,
          -0.47281468,
          0.34186113,
          0.15058881,
          0.0452016,
          -0.46976978,
          -0.40507162,
          -0.00068080425,
          -0.09300065,
          0.24845415,
          -0.120396346,
          -0.037706614,
          -0.17298442,
          0.14010727,
          0.42352265,
          0.13532126,
          0.46766752,
          0.3179059,
          -0.07784292,
          0.08432877,
          -0.4598523,
          -0.3413753,
          0.08562034,
          0.03036201,
          0.46212,
          0.030093312,
          -0.49123007,
          -0.06634268,
          0.35906327,
          -0.12774208,
          -0.47490418,
          0.37845314,
          0.24599922,
          0.40439343,
          0.26289958,
          -0.42131954,
          -0.5004945,
          0.15715772,
          -0.09918955,
          0.19057369,
          -0.26965138,
          0.13575602,
          0.50806195,
          0.39512187,
          0.31155586,
          0.43793964,
          0.40252727,
          0.38654107,
          0.36424476,
          0.21758592,
          0.23797506,
          -0.09203583,
          0.32558888,
          -0.0021324754,
          -0.44403094,
          0.19445366,
          0.1822105,
          -0.4275727,
          -0.37061808,
          -0.025636852,
          -0.21009263,
          0.4601403,
          -0.19160962,
          0.41067606,
          -0.042159468,
          -0.28197303,
          -0.13441905,
          0.24769789,
          -0.4973013,
          0.4095521,
          0.49269837,
          -0.30971536,
          0.0071609616,
          0.32654577,
          -0.4150673,
          0.3000322,
          -0.5061257,
          0.31142354,
          0.16134793
        ],
        "biases_l2": [
          0.0,
          0.0,
          0.0,
          0.0,
          0.0,
          0.0
        ],
        "alive": true,
        "morph_size": 0.8178021,
        "morph_speed_mult": 1.4035426,
        "morph_vision_mult": 1.0579789,
        "morph_metabolism": 0.78395987
      },
      "generation": 0,
      "offspring_count": 0,
      "age": 5,
      "energy": 70.0,
      "species_id": 0,
      "score": 64891.668,
      "evaluations": 6,
      "successes": 6,
      "best_steps_to_food": 5,
      "average_steps_to_food": 25.833334,
      "notes": "Direct foraging challenge: 6 / 6 scenarios reached food"
    },
    {
      "label": "forager-0003-00036",
      "source": "foraging_search",
      "genome": {
        "weights_l1": [
          -0.28260297,
          -0.32482013,
          -0.24451055,
          -0.113353014,
          -0.10879019,
          -0.19266541,
          0.08176696,
          0.11555654,
          -0.07323459,
          -0.40740013,
          -0.3377307,
          0.04668176,
          0.01603499,
          -0.2074852,
          -0.29865444,
          -0.32238552,
          0.2497477,
          -0.28824192,
          -0.24400684,
          -0.3780883,
          0.4077201,
          0.17174268,
          -0.028057009,
          0.28504258,
          -0.18499744,
          0.13530779,
          -0.021783054,
          -0.29314288,
          -0.19315529,
          0.052204996,
          0.33888638,
          -0.054172873,
          -0.028475732,
          0.25941402,
          0.12494558,
          -0.3644703,
          0.06642744,
          0.2892173,
          0.38635057,
          -0.11714807,
          0.33171654,
          -0.37446776,
          0.10737932,
          0.35894912,
          0.013792515,
          -0.12106606,
          -0.07081446,
          -0.3212078,
          -0.0374476,
          0.2119053,
          -0.35385156,
          -0.26961455,
          0.3421721,
          -0.10476825,
          -0.02463007,
          -0.05726996,
          0.04864937,
          0.24706715,
          -0.17413282,
          -0.3794832,
          -0.09081963,
          -0.07913545,
          0.23184752,
          0.15292454,
          0.21237731,
          -0.11138219,
          0.08332363,
          0.12724221,
          0.25919795,
          0.07748097,
          0.105038345,
          -0.20281823,
          0.30740672,
          0.13775349,
          0.05409667,
          -0.4005377,
          0.34570187,
          -0.08695778,
          -0.25008234,
          -0.017074525,
          0.36084628,
          -0.31684002,
          -0.05828893,
          -0.231815,
          0.2777866,
          0.17396402,
          -0.1274935,
          -0.31745964,
          0.2931193,
          0.09588498,
          0.35284972,
          -0.3678988,
          0.24595731,
          -0.20375866,
          -0.23108469,
          -0.33216643,
          0.25771773,
          0.14447719,
          -0.2725156,
          -0.2356549,
          -0.020441413,
          0.07607624,
          -0.36840278,
          -0.3576827,
          0.062458247,
          -0.15643576,
          0.005676627,
          -0.35962287,
          0.11579102,
          0.32410657,
          -0.27209657,
          0.3869384,
          -0.02552399,
          -0.3666312,
          -0.057530016,
          -0.2876774,
          0.26628464,
          0.07681978,
          0.19752198,
          -0.14635944,
          0.29960078,
          -0.38748103,
          0.10228175,
          -0.17156944,
          0.20405507,
          0.19668144,
          0.40084934,
          -0.19227365,
          0.38794976,
          -0.0047780275,
          0.3579073,
          0.38747752,
          -0.020010501,
          0.07829681,
          0.35632735,
          0.3969338,
          0.29590648,
          0.017269373,
          0.22600251,
          0.32105428,
          0.14725989,
          -0.052470714,
          0.14738858,
          -0.008292764,
          -0.050029367,
          -0.36039066,
          0.27762455,
          0.05031398,
          -0.057117224,
          -0.007639736,
          0.06119737,
          -0.35614815,
          -0.16679424,
          0.063776255,
          0.32798874,
          0.26296604,
          0.35803372,
          -0.2715881,
          -0.0607616,
          -0.03406951,
          -0.0966354,
          0.36668283,
          0.24318546,
          0.108373106,
          -0.38052234,
          0.3035369,
          -0.014855117,
          -0.35977325,
          -0.072352916,
          0.025161117,
          -0.38404143,
          -0.19831204,
          -0.38147834,
          -0.10941908,
          -0.27212906,
          0.07433766,
          0.24685103,
          0.223997,
          0.020852238,
          0.30901843,
          0.116675675,
          0.32825202,
          0.3497241,
          -0.38922924,
          0.39308602,
          -0.18848842,
          -0.2134173,
          0.07671678,
          -0.094071746,
          -0.3593522,
          0.313726,
          -0.3839038,
          0.22043985,
          0.26692402,
          0.38207334,
          0.28429627,
          0.32826102,
          -0.28314134,
          -0.16025251,
          0.3391328,
          -0.16632041,
          -0.18102369,
          -0.06071323,
          0.248635,
          -0.18074521,
          0.14300883,
          0.1007036,
          0.2712447,
          -0.24230808,
          0.10326588,
          0.08324674,
          -0.15313342,
          0.37993783,
          0.028929502,
          0.108855724,
          -0.40455702,
          0.0772647,
          -0.38035998,
          -0.2586739,
          0.32526553,
          -0.100434065,
          0.325248,
          -0.24985701,
          -0.1292612,
          -0.16685906,
          -0.28693998,
          0.25333136,
          -0.23733354,
          -0.37258795,
          0.107898414,
          0.13842392,
          -0.13497469,
          0.16732138,
          -0.118312955,
          0.08272639,
          -0.025434524,
          0.051178485,
          0.06894916,
          0.3763762,
          0.22522897,
          -0.35876682,
          0.055716693,
          0.24072999,
          -0.06056276,
          -0.07104066,
          0.19255054,
          -0.34063974,
          0.09277409,
          0.22613752,
          -0.18708175,
          0.10248381,
          0.27660173,
          -0.10945994,
          -0.3076724,
          -0.059804052,
          -0.24154966,
          -0.35921445,
          0.34691805,
          -0.11188376,
          -0.1708405,
          -0.009510785,
          0.30160022,
          0.20917177,
          0.18928862,
          0.21350658,
          0.008722484,
          -0.24813654,
          -0.3085723,
          -0.3229489,
          -0.14972672,
          0.24392569,
          0.26889086,
          0.13482082,
          -0.3033105,
          -0.097397536,
          0.39570874,
          0.26623726,
          0.043251723,
          -0.12029371,
          0.16238743,
          -0.40554574,
          0.21227556,
          0.31874192,
          0.22785652,
          0.14955753,
          -0.13716072,
          0.07474998,
          -0.40232846,
          -0.29106557,
          -0.22850515,
          0.08666745,
          0.11944288,
          0.32266778,
          0.28066242,
          0.22080702,
          -0.3337002,
          -0.3424486,
          -0.06835747,
          -0.22465637,
          -0.111889124,
          -0.15001404,
          0.09753585,
          -0.26152337,
          0.38823724,
          -0.14089328,
          0.15017366,
          0.39882016,
          -0.14608985,
          -0.258196,
          -0.18344818,
          0.043224275,
          -0.14778996,
          0.1326673,
          -0.09784898,
          -0.15186292,
          0.31634378,
          0.09375453,
          0.4046746,
          -0.34730226,
          0.1600458
        ],
        "biases_l1": [
          0.0,
          0.0,
          0.0,
          0.0,
          0.0,
          0.0,
          0.0,
          0.0,
          0.0,
          0.0,
          0.0,
          0.0,
          0.0,
          0.0,
          0.0,
          0.0
        ],
        "weights_l2": [
          0.19029367,
          -0.008329451,
          0.30616695,
          0.39921278,
          -0.38566858,
          -0.4351932,
          0.21703964,
          -0.3547098,
          -0.24112564,
          0.0009816289,
          0.42602158,
          -0.0065977573,
          0.18188363,
          0.51294786,
          -0.2947567,
          -0.41714013,
          -0.46572047,
          -0.17155516,
          0.3024903,
          0.19453275,
          0.41092795,
          0.0050350428,
          -0.5126179,
          0.30771947,
          0.23267567,
          -0.059183598,
          -0.37512758,
          0.20314771,
          -0.12784106,
          -0.461733,
          0.31732738,
          0.24425858,
          -0.43205443,
          0.071446,
          -0.28513035,
          0.44277012,
          -0.46533036,
          -0.41553494,
          -0.4094143,
          -0.16400686,
          -0.42357618,
          0.021840155,
          -0.030882984,
          -0.022640795,
          0.11405283,
          0.25949013,
          -0.36746573,
          0.0007201433,
          -0.28094047,
          -0.2706968,
          0.17112613,
          -0.06641501,
          0.20904416,
          0.36734718,
          0.13775492,
          -0.22317353,
          -0.1656819,
          0.029668272,
          -0.37082416,
          0.036937177,
          0.5124269,
          -0.30934632,
          0.24436665,
          0.2774893,
          0.43158764,
          0.33067077,
          0.3547647,
          0.31646502,
          0.36162406,
          0.118653595,
          0.43967545,
          -0.20144504,
          0.5040212,
          -0.2555093,
          0.060777962,
          -0.034852594,
          -0.42585957,
          -0.12144086,
          -0.21675864,
          0.1836837,
          0.33775926,
          0.017231703,
          0.4004529,
          -0.10671654,
          -0.09932351,
          0.407457,
          -0.41149658,
          0.1398468,
          -0.010951877,
          0.350906,
          0.32854676,
          0.099240005,
          -0.14584097,
          -0.28742233,
          0.4408273,
          0.44467902
        ],
        "biases_l2": [
          0.0,
          0.0,
          0.0,
          0.0,
          0.0,
          0.0
        ],
        "alive": true,
        "morph_size": 1.0467516,
        "morph_speed_mult": 0.94539356,
        "morph_vision_mult": 0.954046,
        "morph_metabolism": 1.1156397
      },
      "generation": 0,
      "offspring_count": 0,
      "age": 7,
      "energy": 70.0,
      "species_id": 0,
      "score": 64871.668,
      "evaluations": 6,
      "successes": 6,
      "best_steps_to_food": 7,
      "average_steps_to_food": 17.833334,
      "notes": "Direct foraging challenge: 6 / 6 scenarios reached food"
    },
    {
      "label": "forager-0004-05873",
      "source": "foraging_search",
      "genome": {
        "weights_l1": [
          0.09720248,
          0.06800082,
          -0.015969783,
          -0.29472592,
          -0.39352363,
          0.13277102,
          0.22338837,
          0.13950783,
          0.13393807,
          -0.123084575,
          0.2995785,
          0.3443951,
          -0.071630895,
          0.116625845,
          -0.4077156,
          0.18906826,
          -0.17884389,
          0.19973856,
          -0.39508224,
          -0.10586658,
          -0.04937169,
          -0.06748399,
          -0.064320534,
          0.3010552,
          -0.0719665,
          -0.26636124,
          -0.061697394,
          0.37423307,
          -0.22420464,
          -0.308476,
          0.33238328,
          -0.11339682,
          -0.4023782,
          0.3966319,
          -0.3695494,
          0.1033932,
          0.3514923,
          0.069408566,
          -0.089274734,
          0.2718137,
          0.1077503,
          -0.4056411,
          0.3561452,
          -0.16066425,
          -0.038222164,
          0.04792142,
          -0.19113465,
          -0.2552828,
          -0.03429398,
          -0.33663455,
          0.20725274,
          -0.08940223,
          -0.35934186,
          0.30037755,
          -0.14527485,
          0.064821124,
          0.06599039,
          -0.29180232,
          0.04147479,
          0.2895822,
          -0.17825103,
          0.17871767,
          -0.39437667,
          0.045355022,
          -0.06570697,
          0.080883086,
          -0.40515843,
          0.3972854,
          0.15424526,
          -0.34447294,
          0.32298785,
          0.30528617,
          -0.34284434,
          0.11400515,
          -0.23671634,
          0.23344785,
          0.31405628,
          0.08967838,
          0.0064174235,
          -0.3103644,
          -0.22453956,
          -0.3695665,
          -0.26975033,
          -0.20422655,
          -0.0041521788,
          0.33184397,
          -0.2695734,
          -0.24361546,
          0.15073842,
          -0.23225474,
          0.26256406,
          -0.37936786,
          0.06452474,
          0.084558904,
          -0.10780653,
          0.13545126,
          -0.2317053,
          -0.035248727,
          -0.28260309,
          0.16429245,
          -0.39179236,
          0.31131387,
          0.3485164,
          0.23899388,
          0.008631855,
          0.09560847,
          0.3572814,
          -0.15785936,
          -0.32845253,
          0.112721205,
          0.06725252,
          0.35814106,
          -0.25608724,
          -0.06889707,
          -0.29338777,
          0.11172414,
          -0.2326394,
          0.36672533,
          -0.23620427,
          0.39675295,
          -0.18171223,
          -0.037992477,
          -0.22999659,
          0.08206597,
          0.35392964,
          0.11895895,
          -0.12807596,
          0.3387906,
          -0.049562752,
          -0.38564083,
          0.010466218,
          0.2117647,
          0.17450112,
          -0.14305332,
          0.13961625,
          0.10776943,
          -0.1086252,
          -0.40206555,
          -0.11808258,
          -0.3630287,
          0.24184489,
          0.122175455,
          0.23245311,
          0.28702748,
          0.06292847,
          0.16249216,
          -0.40693644,
          0.21063548,
          -0.31990322,
          0.14174193,
          -0.37627438,
          -0.21368302,
          -0.29583925,
          0.039155036,
          0.06617397,
          -0.2839206,
          0.2565611,
          -0.2882356,
          0.08091277,
          0.27964926,
          0.09516674,
          0.020128578,
          -0.16263837,
          -0.35169822,
          -0.38090485,
          0.16711223,
          0.3036585,
          0.30719686,
          -0.15237859,
          -0.39880848,
          -0.028586894,
          0.10322583,
          -0.37080547,
          0.19919515,
          -0.32341784,
          0.24853325,
          -0.12891242,
          -0.13436723,
          0.073928475,
          0.22842073,
          0.35735458,
          -0.32841983,
          -0.20362064,
          0.10269308,
          0.33695066,
          0.2993592,
          0.32423216,
          -0.08430603,
          -0.39946547,
          -0.35235554,
          -0.40185043,
          0.32935387,
          -0.003074795,
          -0.16529986,
          -0.24766904,
          0.27578443,
          0.11448932,
          0.05783847,
          -0.30369633,
          -0.11263779,
          -0.37251797,
          0.34910274,
          0.05229065,
          -0.1641194,
          -0.3749811,
          -0.3294143,
          0.16185617,
          0.14325207,
          0.3356461,
          -0.26579845,
          0.28167468,
          0.06474617,
          0.05155471,
          -0.124602675,
          0.21566415,
          -0.053204983,
          0.11016923,
          -0.07773724,
          0.003251344,
          0.09092152,
          0.39055932,
          -0.3851277,
          -0.3454639,
          0.16923702,
          0.2580713,
          -0.11602542,
          0.29946005,
          0.0869537,
          -0.17498684,
          0.36711663,
          0.2616272,
          -0.29610497,
          -0.15356714,
          0.39620245,
          0.35526973,
          -0.3634373,
          0.25020456,
          -0.2022784,
          0.26969832,
          0.13573009,
          -0.15042627,
          -0.05497259,
          0.13327497,
          -0.39143726,
          0.045585304,
          -0.08534089,
          -0.28320247,
          -0.21053399,
          -0.23327383,
          0.19538689,
          -0.39495093,
          0.027439237,
          -0.39978063,
          0.38287616,
          -0.37239796,
          0.19833207,
          0.1993317,
          0.08755463,
          -0.041664004,
          -0.12717757,
          -0.3304988,
          -0.36317012,
          -0.22620875,
          0.05092135,
          -0.09351227,
          -0.033847004,
          0.17403853,
          -0.23678155,
          -0.37653756,
          -0.1009877,
